[
  {
    "config": {
      "iteration": 1,
      "name": "per_asset_arx_v001_h3_e50",
      "horizon": 3,
      "target_bps": 0.0,
      "entry_threshold": 0.5,
      "exit_threshold": 0.42,
      "l2": 0.01,
      "epochs": 60,
      "learning_rate": 0.025,
      "trend_min": 1.0,
      "min_range_position_60": 0.15,
      "max_volatility_20": 0.04,
      "stop_loss_pct": null,
      "trailing_stop_pct": null,
      "take_profit_pct": null,
      "max_hold_bars": null
    },
    "models": {
      "AMD": {
        "weights": [
          0.033893189914,
          0.034038974244,
          -0.023334864247,
          -0.066765066267,
          0.010608849634,
          -0.025976554586,
          -0.058807059279,
          -0.03076082434,
          -0.021769275856,
          0.012509176285,
          0.012604888576,
          0.030306937987,
          0.001723361216,
          -0.010444651604,
          -0.034599318181,
          -0.013856718032,
          -0.045131851478,
          -0.049632019689,
          -0.041313936354,
          -0.027996172764,
          0.042739756078,
          0.010015172308,
          0.025389504766,
          -0.007047660813,
          -0.033979821104,
          -0.004267617722,
          -0.023569961715,
          -0.007047660813,
          -0.033979821104,
          -0.000468003797,
          -0.010400917332,
          -0.008132143204,
          0.008142293889,
          0.001835360306,
          -0.03420893464,
          0.011701255885,
          0.024711256329
        ],
        "bias": 0.003139768701,
        "means": [
          0.002991440274,
          0.005783945174,
          0.00861520255,
          0.014266358568,
          0.028753666254,
          0.061662408274,
          0.136682492333,
          0.218289246718,
          0.03119559124,
          0.033282007992,
          0.034083726422,
          0.034164716999,
          0.038342333349,
          0.004753566102,
          0.010468543595,
          0.023226919576,
          0.065280440385,
          0.139898687951,
          0.012215033132,
          0.02756440394,
          0.533474305608,
          0.563822097828,
          0.566424093052,
          -0.086896481149,
          -0.116380737527,
          0.162272886274,
          0.375717907441,
          -0.086896481149,
          -0.116380737527,
          0.092,
          0.068,
          0.044,
          0.000771339076,
          -0.006483032081,
          0.002298520816,
          0.542841959113,
          2.652
        ],
        "stds": [
          0.03802807375,
          0.051941644853,
          0.066208469457,
          0.083850671436,
          0.115511602956,
          0.181956236277,
          0.244410428945,
          0.270466992041,
          0.022153180189,
          0.01904036751,
          0.016336765245,
          0.014972408243,
          0.022376501144,
          0.040526962713,
          0.060220478807,
          0.09172261257,
          0.148717642578,
          0.198585527247,
          0.040295156674,
          0.045100160384,
          0.304644270017,
          0.322995868873,
          0.342715815598,
          0.064646037381,
          0.086876773333,
          0.140783513377,
          0.265120106324,
          0.064646037381,
          0.086876773333,
          0.289025950392,
          0.251745903641,
          0.205095099893,
          0.435833585032,
          0.485576935524,
          0.504135034452,
          0.172027085422,
          2.014670196335
        ],
        "positive_rate": 0.596,
        "train_rows": 250,
        "latest_probability": 0.332974841642126
      },
      "AMZN": {
        "weights": [
          0.015814844422,
          -0.030728568382,
          -0.044332670993,
          -0.015112189105,
          -0.021150034004,
          -0.003497374138,
          0.014661388378,
          -0.035858402425,
          -0.063319157389,
          -0.02281808465,
          0.018425729359,
          0.003616064885,
          -0.0258701067,
          -0.036902451664,
          -0.041654359935,
          -0.01675248883,
          -0.006628477013,
          -0.02894678229,
          0.010022202892,
          0.034273878483,
          0.010326248665,
          -0.028266789647,
          0.034896642178,
          0.029097905657,
          -0.006416701778,
          -0.061580776317,
          0.021232569892,
          0.029097905657,
          -0.006416701778,
          -0.008958196245,
          -0.053418792914,
          -0.011954752315,
          0.025667386145,
          -0.012723035921,
          -0.031415563248,
          0.005973987938,
          0.002222810578
        ],
        "bias": -0.000374191973,
        "means": [
          0.00041822185,
          0.000761063338,
          0.001050580053,
          0.001713698801,
          0.003065472055,
          0.003199953249,
          0.009107246911,
          0.020368197375,
          0.018498540979,
          0.019365534033,
          0.019716054609,
          0.019641417846,
          0.023379926761,
          0.000426345792,
          0.000812935642,
          0.001598175583,
          0.001895189205,
          0.006400788213,
          0.000800562227,
          0.000362066243,
          0.532071358274,
          0.497979178182,
          0.47133665806,
          -0.056152269016,
          -0.084624814992,
          0.073140830039,
          0.130025030822,
          -0.056152269016,
          -0.084624814992,
          0.06,
          0.036,
          0.04,
          0.00644623793,
          0.010460850858,
          0.042856918472,
          0.513024008527,
          2.644
        ],
        "stds": [
          0.021485404294,
          0.029262836836,
          0.035794152283,
          0.043263080955,
          0.056924286112,
          0.075920629595,
          0.10015476362,
          0.114676095553,
          0.011895983275,
          0.010079570855,
          0.008847580583,
          0.008291320241,
          0.014554050879,
          0.02234063459,
          0.031739137108,
          0.044035597817,
          0.065976467462,
          0.076980389108,
          0.018208283497,
          0.022005373898,
          0.29881624124,
          0.319819265756,
          0.318489295797,
          0.045904929039,
          0.076286641065,
          0.052903648666,
          0.107308997299,
          0.045904929039,
          0.076286641065,
          0.237486841741,
          0.186290096355,
          0.195959179423,
          0.392839972916,
          0.442675301218,
          0.535854509676,
          0.149478440152,
          1.909257447282
        ],
        "positive_rate": 0.496,
        "train_rows": 250,
        "latest_probability": 0.4354775918863834
      },
      "GOOGL": {
        "weights": [
          0.052079798544,
          0.013231287094,
          -0.010048944066,
          -0.032585549544,
          0.017730222442,
          -0.008877987942,
          -0.003530790493,
          -0.004825434315,
          0.005458153631,
          0.028323829582,
          -0.05555511068,
          -0.057324848738,
          0.117401088824,
          -0.011419564376,
          -0.012724511327,
          0.004749371185,
          0.001458066532,
          -0.008447244631,
          -0.008165737255,
          0.019472565765,
          0.020050696541,
          0.038911907487,
          0.080230332501,
          0.013950675678,
          0.00996691057,
          -0.016657434603,
          0.035058372187,
          0.013950675678,
          0.00996691057,
          0.011171783238,
          0.025907712971,
          0.005488768649,
          0.096899819831,
          0.097189492996,
          0.058998349287,
          0.017933730544,
          0.048509839977
        ],
        "bias": 0.005349672728,
        "means": [
          0.00221623188,
          0.004378596955,
          0.006472242737,
          0.010661090056,
          0.020922664533,
          0.042421552586,
          0.089195863362,
          0.135271018701,
          0.018129087753,
          0.018968161542,
          0.019049687601,
          0.018601491787,
          0.024504053927,
          0.004054838254,
          0.008907428107,
          0.018764346758,
          0.047582813269,
          0.092455974289,
          0.009926488834,
          0.016679504988,
          0.622133206479,
          0.621008088938,
          0.568362328333,
          -0.045445736641,
          -0.071453045443,
          0.099312990984,
          0.223683343005,
          -0.045445736641,
          -0.071453045443,
          0.096,
          0.092,
          0.04,
          7.8166069e-05,
          -0.00226094357,
          0.025652563654,
          0.574149842203,
          3.296
        ],
        "stds": [
          0.020280481468,
          0.027963325855,
          0.035106380099,
          0.044045623483,
          0.060435187626,
          0.092839106288,
          0.148082248053,
          0.198248208027,
          0.009481066079,
          0.007623535199,
          0.006604973132,
          0.006753418832,
          0.012632267797,
          0.021972167792,
          0.032142432186,
          0.048904512284,
          0.092948171752,
          0.152448712692,
          0.02176574951,
          0.034270818696,
          0.310290473029,
          0.37389632355,
          0.3891786312,
          0.042270748451,
          0.081813345045,
          0.065073599467,
          0.155036770097,
          0.042270748451,
          0.081813345045,
          0.294591242232,
          0.289025950392,
          0.195959179423,
          0.382385620875,
          0.412989463881,
          0.439523973627,
          0.171267772775,
          2.047531196344
        ],
        "positive_rate": 0.596,
        "train_rows": 250,
        "latest_probability": 0.43973641942471736
      },
      "NVDA": {
        "weights": [
          0.018376264228,
          0.026603390566,
          -0.03683940007,
          -0.031076456313,
          -0.015257756931,
          0.007447380067,
          0.043603282714,
          0.050714342579,
          -0.073609504361,
          0.031704147054,
          0.002793270429,
          0.029581478036,
          -0.033496385802,
          -0.01502271284,
          -0.019489824999,
          -0.023887281356,
          0.027643897213,
          0.01276298346,
          0.023939553414,
          0.039094255608,
          0.01118048095,
          0.021174609328,
          -0.00685023488,
          -0.018508421242,
          -0.020232803136,
          0.009612315575,
          0.101021445851,
          -0.018508421242,
          -0.020232803136,
          0.00415324076,
          -0.01042909133,
          0.048227079848,
          -0.030868145365,
          -0.008552333859,
          -0.029184252452,
          -0.019505511721,
          -0.013321364557
        ],
        "bias": 0.002107730278,
        "means": [
          0.001680882305,
          0.003082021534,
          0.004496204082,
          0.007582453622,
          0.014702153846,
          0.029697766461,
          0.067797698342,
          0.116851398921,
          0.026220437217,
          0.027391514457,
          0.027753967286,
          0.027284106858,
          0.033225141572,
          0.00245724484,
          0.00522526831,
          0.011275929202,
          0.033192573636,
          0.074274895712,
          0.005745806258,
          0.013857483133,
          0.591440289361,
          0.572798511986,
          0.573018490683,
          -0.06916031293,
          -0.098545624989,
          0.124620187255,
          0.271362243143,
          -0.06916031293,
          -0.098545624989,
          0.092,
          0.068,
          0.02,
          0.008301465261,
          0.013309571937,
          -0.018433680103,
          0.551878070325,
          2.84
        ],
        "stds": [
          0.031037380718,
          0.040789841738,
          0.051472891506,
          0.062992210973,
          0.079931406844,
          0.108371350456,
          0.170549572614,
          0.215258238913,
          0.018067687339,
          0.015824329449,
          0.014429379317,
          0.014466811564,
          0.021367783162,
          0.032106517108,
          0.045529114035,
          0.061397176048,
          0.102719478959,
          0.140912917554,
          0.025311440642,
          0.035165185795,
          0.303080070731,
          0.336947762174,
          0.359241150726,
          0.063888516993,
          0.096892758147,
          0.085935135333,
          0.233497408015,
          0.063888516993,
          0.096892758147,
          0.289025950392,
          0.251745903641,
          0.14,
          0.397130790813,
          0.445261814324,
          0.356207024613,
          0.153536191613,
          2.007585614613
        ],
        "positive_rate": 0.58,
        "train_rows": 250,
        "latest_probability": 0.48888049018226193
      },
      "AAPL": {
        "weights": [
          0.054583290296,
          0.048541932745,
          0.025748302975,
          -0.047746340406,
          -0.082098847821,
          -0.014990794072,
          0.017348011235,
          0.040061898989,
          0.02339790271,
          0.057037185651,
          0.045472358418,
          0.043389839568,
          0.022519766514,
          0.027261900641,
          -0.034296248957,
          -0.040569907618,
          -0.00672222892,
          0.005768227723,
          -0.07501015444,
          0.039969198601,
          -0.000344974706,
          0.044845177013,
          0.011959503958,
          -0.056079560546,
          -0.027265002626,
          -0.023931697433,
          0.038878729616,
          -0.056079560546,
          -0.027265002626,
          -0.015889301585,
          -0.00687823721,
          -0.004465475457,
          -0.000707428025,
          0.019362006371,
          0.02143643946,
          -0.022525498506,
          0.016793011878
        ],
        "bias": 0.001607573846,
        "means": [
          0.000638085998,
          0.00131726059,
          0.002032076503,
          0.003415751045,
          0.006926937273,
          0.015195927771,
          0.028957882548,
          0.044886502721,
          0.015285615127,
          0.016688928248,
          0.017471752876,
          0.017620608973,
          0.02207935858,
          0.000999923204,
          0.002265246638,
          0.005374746302,
          0.016533527889,
          0.028054279474,
          0.003065686478,
          0.006091772198,
          0.576063279493,
          0.620402252861,
          0.571934400797,
          -0.045333159041,
          -0.065238797732,
          0.075480030478,
          0.15393267745,
          -0.045333159041,
          -0.065238797732,
          0.056,
          0.044,
          0.04,
          0.005797482444,
          0.003787768831,
          -0.002182275718,
          0.528749743781,
          2.94
        ],
        "stds": [
          0.020115056483,
          0.02879229373,
          0.036772364623,
          0.046547098853,
          0.055845743845,
          0.065953080603,
          0.099205790728,
          0.128623722509,
          0.012731952788,
          0.011681536918,
          0.010456767256,
          0.009780455913,
          0.015419241708,
          0.023235368992,
          0.032679093555,
          0.039994520689,
          0.061728041116,
          0.096584745108,
          0.015591579463,
          0.021430661739,
          0.290182706239,
          0.304692990059,
          0.337681272225,
          0.041150853933,
          0.067896227779,
          0.054081400446,
          0.084394097371,
          0.041150853933,
          0.067896227779,
          0.229921725811,
          0.205095099893,
          0.195959179423,
          0.372628691743,
          0.436903972277,
          0.483718627865,
          0.163617913287,
          2.053387445174
        ],
        "positive_rate": 0.508,
        "train_rows": 250,
        "latest_probability": 0.6727031833819731
      },
      "META": {
        "weights": [
          0.001812555923,
          0.021412532522,
          -0.016855631091,
          0.012227855803,
          0.046532313645,
          -0.037310942198,
          0.026372723951,
          -0.007696776891,
          -0.115373075454,
          -0.028834173017,
          0.015826832827,
          -0.010887617725,
          0.001495253435,
          -0.004806008809,
          0.028554118028,
          0.034519104422,
          0.00662918059,
          -0.022975360392,
          -0.006339908122,
          -0.040210482738,
          0.012206361453,
          -0.032978743801,
          -0.056290278315,
          0.022950557198,
          0.008642605318,
          -0.00230115352,
          0.002774172629,
          0.022950557198,
          0.008642605318,
          -0.044921867763,
          -0.07264236383,
          -0.042187321134,
          0.030907043166,
          -0.012698373662,
          -0.043516433616,
          0.049079355041,
          -0.017340088058
        ],
        "bias": 8.947895e-05,
        "means": [
          0.000667741671,
          0.001298875692,
          0.0017704798,
          0.002897816255,
          0.005969783575,
          0.009191937361,
          0.004119562036,
          0.018692810011,
          0.019252117321,
          0.020399514108,
          0.021175951878,
          0.021311623771,
          0.025400088118,
          0.000843445335,
          0.001741478529,
          0.003686986667,
          0.003206818571,
          0.005898876567,
          0.001776525922,
          0.001291115362,
          0.533730033586,
          0.491383564317,
          0.468700822615,
          -0.065414826243,
          -0.102805821388,
          0.089211873573,
          0.16955135934,
          -0.065414826243,
          -0.102805821388,
          0.088,
          0.048,
          0.044,
          0.006069531758,
          1.1970083e-05,
          0.02315911241,
          0.513565796446,
          2.548
        ],
        "stds": [
          0.023853089197,
          0.032289939341,
          0.040385882102,
          0.050726743945,
          0.07458916196,
          0.108196738045,
          0.143641789171,
          0.156500920832,
          0.014465518449,
          0.012445640474,
          0.010727373753,
          0.009811194014,
          0.014975554691,
          0.025563582783,
          0.038906685662,
          0.059848164071,
          0.090530630767,
          0.103980846292,
          0.025960236121,
          0.029254941061,
          0.326724407382,
          0.336613338267,
          0.340450226427,
          0.062315558513,
          0.089248825877,
          0.073988034846,
          0.150693016683,
          0.062315558513,
          0.089248825877,
          0.283294899354,
          0.213766227454,
          0.205095099893,
          0.465839678425,
          0.519864387988,
          0.672958724026,
          0.174320598952,
          1.88883456131
        ],
        "positive_rate": 0.508,
        "train_rows": 250,
        "latest_probability": 0.511157640786719
      },
      "TSLA": {
        "weights": [
          -0.016707309553,
          -0.023876075663,
          -0.027629641036,
          -0.029936008744,
          0.015350539861,
          0.022881615131,
          -0.015511107008,
          -0.012114204574,
          -0.047828241152,
          0.007012780164,
          -0.043773333564,
          -9.8483279e-05,
          -0.00962985436,
          -0.032924258413,
          -0.00939122844,
          0.002611818597,
          0.005551343567,
          -0.011812027101,
          0.037600743804,
          -0.002112027137,
          -0.058293460755,
          0.016858869317,
          0.055410422591,
          -0.001172722521,
          -0.006763777092,
          -0.056495452055,
          -0.02123663537,
          -0.001172722521,
          -0.006763777092,
          0.014190141617,
          0.020932132216,
          -0.058620223442,
          0.00144619409,
          0.047480287765,
          0.021388912486,
          0.017061715568,
          0.005477309785
        ],
        "bias": -0.000476643768,
        "means": [
          0.001465048623,
          0.002560022462,
          0.003718466268,
          0.006399023181,
          0.012654646252,
          0.023441211868,
          0.053996898248,
          0.099228282825,
          0.035201085721,
          0.036734637235,
          0.036698790772,
          0.036102156393,
          0.045972253015,
          0.00150894326,
          0.003493457838,
          0.007807842881,
          0.01707992871,
          0.045392073795,
          0.003469629782,
          0.005277922793,
          0.544093877282,
          0.533107007085,
          0.519632623885,
          -0.095557669529,
          -0.145093564997,
          0.152581820944,
          0.278725909448,
          -0.095557669529,
          -0.145093564997,
          0.072,
          0.036,
          0.04,
          0.00167684879,
          0.012000886637,
          0.071654332976,
          0.531656757892,
          2.732
        ],
        "stds": [
          0.039749799489,
          0.054402355514,
          0.066359758121,
          0.081858790776,
          0.111330686273,
          0.157378662253,
          0.219066637462,
          0.214641536451,
          0.02007853397,
          0.016221470977,
          0.015170224014,
          0.015297973421,
          0.025120126098,
          0.041356982894,
          0.059885756825,
          0.087939702009,
          0.142998584173,
          0.157460458051,
          0.037679272163,
          0.048317927122,
          0.296964578972,
          0.323223424079,
          0.335860902254,
          0.08645402308,
          0.138218702713,
          0.113555124592,
          0.184450616517,
          0.08645402308,
          0.138218702713,
          0.258487910742,
          0.186290096355,
          0.195959179423,
          0.379505417012,
          0.429760879322,
          0.529846156361,
          0.160135358235,
          1.887902539857
        ],
        "positive_rate": 0.476,
        "train_rows": 250,
        "latest_probability": 0.4333248987447328
      },
      "NFLX": {
        "weights": [
          0.025397746869,
          0.029334382314,
          0.030702522106,
          0.008089961683,
          -0.001837956879,
          0.007944944895,
          0.033402139806,
          0.015625591475,
          0.002059201069,
          0.035058522703,
          0.009821730085,
          -0.025612526889,
          0.035809978206,
          0.044451862524,
          -0.026596078887,
          0.020647507633,
          0.031860145449,
          0.025913661049,
          0.032264752219,
          0.021195046038,
          0.010034434194,
          -0.026693642938,
          -0.026266999327,
          0.008005610444,
          0.030801746408,
          0.080140189608,
          -0.0038406456,
          0.008005610444,
          0.030801746408,
          0.012977211201,
          -0.013177011904,
          -0.03181407462,
          -0.041181301048,
          -0.026273892715,
          -0.022923593911,
          -0.034353036287,
          -0.045955591254
        ],
        "bias": -0.000370928179,
        "means": [
          -0.003120457156,
          -0.006203654371,
          -0.009099130979,
          -0.014750306142,
          -0.028765608129,
          -0.057202131346,
          -0.075819586299,
          -0.05262474408,
          0.025771385728,
          0.029786026628,
          0.034217911331,
          0.034190514437,
          0.024780034486,
          -0.01179727231,
          -0.025571952558,
          -0.051613468557,
          -0.084878767338,
          -0.06914715972,
          -0.030427973384,
          -0.01463982868,
          0.490759605584,
          0.47547986377,
          0.477394431044,
          -0.119427777357,
          -0.17111948875,
          0.084308359188,
          0.164591290323,
          -0.119427777357,
          -0.17111948875,
          0.1,
          0.088,
          0.068,
          0.051040487272,
          0.124223222638,
          0.398102423563,
          0.493132504891,
          2.348
        ],
        "stds": [
          0.060750504451,
          0.085731484287,
          0.105337680454,
          0.136079623677,
          0.191778881618,
          0.267611505647,
          0.335255055539,
          0.349833546168,
          0.054508766274,
          0.052828754593,
          0.050022631214,
          0.041876430745,
          0.013423540133,
          0.102937146079,
          0.15193147609,
          0.217886372181,
          0.30417102658,
          0.324778513196,
          0.124148600419,
          0.077457750029,
          0.354444778042,
          0.357002716154,
          0.36939990548,
          0.231622593437,
          0.285823234319,
          0.086984041182,
          0.171135170907,
          0.231622593437,
          0.285823234319,
          0.3,
          0.283294899354,
          0.251745903641,
          0.554233814667,
          0.771975547391,
          1.602452728577,
          0.209934013945,
          1.883320471932
        ],
        "positive_rate": 0.528,
        "train_rows": 250,
        "latest_probability": 0.5101287986386315
      }
    },
    "metrics": {
      "AMD": {
        "cumulative_return_pct": 17.3418,
        "max_drawdown_pct": 29.6938,
        "sharpe": 1.019409,
        "trade_count": 2.0
      },
      "AMZN": {
        "cumulative_return_pct": -25.1404,
        "max_drawdown_pct": 31.3767,
        "sharpe": -2.572995,
        "trade_count": 9.0
      },
      "GOOGL": {
        "cumulative_return_pct": 1.4553,
        "max_drawdown_pct": 14.3886,
        "sharpe": 0.250706,
        "trade_count": 7.0
      },
      "NVDA": {
        "cumulative_return_pct": -1.7526,
        "max_drawdown_pct": 19.3236,
        "sharpe": -0.039405,
        "trade_count": 4.0
      },
      "AAPL": {
        "cumulative_return_pct": -15.0852,
        "max_drawdown_pct": 20.1979,
        "sharpe": -1.952457,
        "trade_count": 8.0
      },
      "META": {
        "cumulative_return_pct": -2.7395,
        "max_drawdown_pct": 18.153,
        "sharpe": -0.036425,
        "trade_count": 6.0
      },
      "TSLA": {
        "cumulative_return_pct": -26.6434,
        "max_drawdown_pct": 29.4066,
        "sharpe": -1.879526,
        "trade_count": 10.0
      },
      "NFLX": {
        "cumulative_return_pct": 1.2918,
        "max_drawdown_pct": 22.1574,
        "sharpe": 0.233255,
        "trade_count": 5.0
      }
    },
    "summary": {
      "avg_return_pct": -6.409,
      "min_return_pct": -26.6434,
      "max_drawdown_pct": 31.3767,
      "avg_sharpe": -0.62218,
      "positive_asset_count": 3,
      "meets_stopping_conditions": false,
      "objective_score": -125.070284
    }
  },
  {
    "config": {
      "iteration": 2,
      "name": "per_asset_arx_v002_h5_e50",
      "horizon": 5,
      "target_bps": 0.0,
      "entry_threshold": 0.5,
      "exit_threshold": 0.42,
      "l2": 0.01,
      "epochs": 60,
      "learning_rate": 0.025,
      "trend_min": 1.0,
      "min_range_position_60": 0.15,
      "max_volatility_20": 0.04,
      "stop_loss_pct": null,
      "trailing_stop_pct": null,
      "take_profit_pct": null,
      "max_hold_bars": null
    },
    "models": {
      "AMD": {
        "weights": [
          0.002748756088,
          -0.028759340571,
          -0.041512735578,
          -0.044072398845,
          0.039852715152,
          -0.019342561205,
          -0.032369399867,
          -0.010498987176,
          0.000225799287,
          0.030260166296,
          0.027071805605,
          0.078812310927,
          0.030807528771,
          -0.040508793595,
          -0.022807540585,
          0.011059724429,
          -0.022589149523,
          -0.034782655739,
          -0.013333678513,
          -0.007878087508,
          0.063049520859,
          0.064617388454,
          0.073079747845,
          -0.013421913823,
          -0.043793139745,
          0.022634908329,
          0.019466754514,
          -0.013421913823,
          -0.043793139745,
          -0.001325089487,
          -0.014129530125,
          -0.039339346742,
          0.008278263962,
          0.005503002175,
          -0.016124076158,
          0.040729230412,
          0.056360775019
        ],
        "bias": 0.002164501686,
        "means": [
          0.002991440274,
          0.005783945174,
          0.00861520255,
          0.014266358568,
          0.028753666254,
          0.061662408274,
          0.136682492333,
          0.218289246718,
          0.03119559124,
          0.033282007992,
          0.034083726422,
          0.034164716999,
          0.038342333349,
          0.004753566102,
          0.010468543595,
          0.023226919576,
          0.065280440385,
          0.139898687951,
          0.012215033132,
          0.02756440394,
          0.533474305608,
          0.563822097828,
          0.566424093052,
          -0.086896481149,
          -0.116380737527,
          0.162272886274,
          0.375717907441,
          -0.086896481149,
          -0.116380737527,
          0.092,
          0.068,
          0.044,
          0.000771339076,
          -0.006483032081,
          0.002298520816,
          0.542841959113,
          2.652
        ],
        "stds": [
          0.03802807375,
          0.051941644853,
          0.066208469457,
          0.083850671436,
          0.115511602956,
          0.181956236277,
          0.244410428945,
          0.270466992041,
          0.022153180189,
          0.01904036751,
          0.016336765245,
          0.014972408243,
          0.022376501144,
          0.040526962713,
          0.060220478807,
          0.09172261257,
          0.148717642578,
          0.198585527247,
          0.040295156674,
          0.045100160384,
          0.304644270017,
          0.322995868873,
          0.342715815598,
          0.064646037381,
          0.086876773333,
          0.140783513377,
          0.265120106324,
          0.064646037381,
          0.086876773333,
          0.289025950392,
          0.251745903641,
          0.205095099893,
          0.435833585032,
          0.485576935524,
          0.504135034452,
          0.172027085422,
          2.014670196335
        ],
        "positive_rate": 0.576,
        "train_rows": 250,
        "latest_probability": 0.4928934530431665
      },
      "AMZN": {
        "weights": [
          -0.010304307298,
          -0.015542611048,
          -0.040076772528,
          -0.046439376134,
          -0.038970107895,
          0.005208511862,
          0.004400470229,
          -0.012445319285,
          -0.037567871862,
          0.008930715837,
          0.036756863052,
          0.012212215217,
          -0.011244676912,
          -0.04203947349,
          -0.055203915887,
          -0.02861406735,
          -0.022234279917,
          -0.035153748376,
          0.009183473812,
          0.058100762044,
          0.043869891718,
          -0.030197747692,
          0.049116886725,
          0.042621988764,
          -0.030095818098,
          -0.054678075043,
          0.068328527592,
          0.042621988764,
          -0.030095818098,
          0.034850424332,
          0.011784176577,
          -0.001296267314,
          0.058590352839,
          0.015007721619,
          -0.026072210685,
          0.012521164327,
          -0.012909069881
        ],
        "bias": 0.000763181385,
        "means": [
          0.00041822185,
          0.000761063338,
          0.001050580053,
          0.001713698801,
          0.003065472055,
          0.003199953249,
          0.009107246911,
          0.020368197375,
          0.018498540979,
          0.019365534033,
          0.019716054609,
          0.019641417846,
          0.023379926761,
          0.000426345792,
          0.000812935642,
          0.001598175583,
          0.001895189205,
          0.006400788213,
          0.000800562227,
          0.000362066243,
          0.532071358274,
          0.497979178182,
          0.47133665806,
          -0.056152269016,
          -0.084624814992,
          0.073140830039,
          0.130025030822,
          -0.056152269016,
          -0.084624814992,
          0.06,
          0.036,
          0.04,
          0.00644623793,
          0.010460850858,
          0.042856918472,
          0.513024008527,
          2.644
        ],
        "stds": [
          0.021485404294,
          0.029262836836,
          0.035794152283,
          0.043263080955,
          0.056924286112,
          0.075920629595,
          0.10015476362,
          0.114676095553,
          0.011895983275,
          0.010079570855,
          0.008847580583,
          0.008291320241,
          0.014554050879,
          0.02234063459,
          0.031739137108,
          0.044035597817,
          0.065976467462,
          0.076980389108,
          0.018208283497,
          0.022005373898,
          0.29881624124,
          0.319819265756,
          0.318489295797,
          0.045904929039,
          0.076286641065,
          0.052903648666,
          0.107308997299,
          0.045904929039,
          0.076286641065,
          0.237486841741,
          0.186290096355,
          0.195959179423,
          0.392839972916,
          0.442675301218,
          0.535854509676,
          0.149478440152,
          1.909257447282
        ],
        "positive_rate": 0.528,
        "train_rows": 250,
        "latest_probability": 0.466737910728418
      },
      "GOOGL": {
        "weights": [
          0.005051293631,
          -0.015609042783,
          -0.019270991211,
          -0.039313464739,
          0.029115426316,
          -0.031716761796,
          0.023138451406,
          -0.019528806067,
          -0.0383288225,
          0.038626808594,
          -0.050190930776,
          0.003284912307,
          0.023617334514,
          -0.02523949295,
          -0.020586189458,
          -0.010553573588,
          0.005105641156,
          0.000484511232,
          -0.02748003746,
          0.022804123734,
          0.030922660898,
          0.074371064573,
          0.102843752091,
          0.026017559546,
          0.011168267772,
          -0.03998027923,
          0.04288304085,
          0.026017559546,
          0.011168267772,
          0.00771305397,
          0.020595484295,
          0.013527423662,
          0.065274027664,
          0.049404867442,
          -0.002063168828,
          0.007860264155,
          0.07364966707
        ],
        "bias": 0.003553899528,
        "means": [
          0.00221623188,
          0.004378596955,
          0.006472242737,
          0.010661090056,
          0.020922664533,
          0.042421552586,
          0.089195863362,
          0.135271018701,
          0.018129087753,
          0.018968161542,
          0.019049687601,
          0.018601491787,
          0.024504053927,
          0.004054838254,
          0.008907428107,
          0.018764346758,
          0.047582813269,
          0.092455974289,
          0.009926488834,
          0.016679504988,
          0.622133206479,
          0.621008088938,
          0.568362328333,
          -0.045445736641,
          -0.071453045443,
          0.099312990984,
          0.223683343005,
          -0.045445736641,
          -0.071453045443,
          0.096,
          0.092,
          0.04,
          7.8166069e-05,
          -0.00226094357,
          0.025652563654,
          0.574149842203,
          3.296
        ],
        "stds": [
          0.020280481468,
          0.027963325855,
          0.035106380099,
          0.044045623483,
          0.060435187626,
          0.092839106288,
          0.148082248053,
          0.198248208027,
          0.009481066079,
          0.007623535199,
          0.006604973132,
          0.006753418832,
          0.012632267797,
          0.021972167792,
          0.032142432186,
          0.048904512284,
          0.092948171752,
          0.152448712692,
          0.02176574951,
          0.034270818696,
          0.310290473029,
          0.37389632355,
          0.3891786312,
          0.042270748451,
          0.081813345045,
          0.065073599467,
          0.155036770097,
          0.042270748451,
          0.081813345045,
          0.294591242232,
          0.289025950392,
          0.195959179423,
          0.382385620875,
          0.412989463881,
          0.439523973627,
          0.171267772775,
          2.047531196344
        ],
        "positive_rate": 0.592,
        "train_rows": 250,
        "latest_probability": 0.4245134049519308
      },
      "NVDA": {
        "weights": [
          -0.018451145495,
          0.012290747534,
          -0.02268734593,
          -0.068117821353,
          -0.052072058557,
          0.033180607599,
          0.069885863335,
          0.055024599485,
          -0.049427810911,
          0.054001672154,
          -0.010873737511,
          0.043729762675,
          -0.066154373812,
          -0.030946546227,
          -0.066933888773,
          -0.052423051319,
          0.029295324372,
          0.008848148342,
          0.047991283707,
          0.055097067369,
          0.008544951532,
          0.038993210227,
          0.034165136526,
          -0.028183288429,
          -0.035858153175,
          0.01076100063,
          0.138367078527,
          -0.028183288429,
          -0.035858153175,
          0.00347901268,
          0.010008455049,
          0.042992301089,
          -0.074513296187,
          -0.041325936495,
          -0.08342435336,
          -0.033084302343,
          -0.011036257923
        ],
        "bias": 0.005720346963,
        "means": [
          0.001680882305,
          0.003082021534,
          0.004496204082,
          0.007582453622,
          0.014702153846,
          0.029697766461,
          0.067797698342,
          0.116851398921,
          0.026220437217,
          0.027391514457,
          0.027753967286,
          0.027284106858,
          0.033225141572,
          0.00245724484,
          0.00522526831,
          0.011275929202,
          0.033192573636,
          0.074274895712,
          0.005745806258,
          0.013857483133,
          0.591440289361,
          0.572798511986,
          0.573018490683,
          -0.06916031293,
          -0.098545624989,
          0.124620187255,
          0.271362243143,
          -0.06916031293,
          -0.098545624989,
          0.092,
          0.068,
          0.02,
          0.008301465261,
          0.013309571937,
          -0.018433680103,
          0.551878070325,
          2.84
        ],
        "stds": [
          0.031037380718,
          0.040789841738,
          0.051472891506,
          0.062992210973,
          0.079931406844,
          0.108371350456,
          0.170549572614,
          0.215258238913,
          0.018067687339,
          0.015824329449,
          0.014429379317,
          0.014466811564,
          0.021367783162,
          0.032106517108,
          0.045529114035,
          0.061397176048,
          0.102719478959,
          0.140912917554,
          0.025311440642,
          0.035165185795,
          0.303080070731,
          0.336947762174,
          0.359241150726,
          0.063888516993,
          0.096892758147,
          0.085935135333,
          0.233497408015,
          0.063888516993,
          0.096892758147,
          0.289025950392,
          0.251745903641,
          0.14,
          0.397130790813,
          0.445261814324,
          0.356207024613,
          0.153536191613,
          2.007585614613
        ],
        "positive_rate": 0.6,
        "train_rows": 250,
        "latest_probability": 0.45490536113643654
      },
      "AAPL": {
        "weights": [
          0.005093818687,
          0.021392034485,
          -0.004668452781,
          -0.054587187072,
          -0.088497882904,
          -0.03040023417,
          0.023061925479,
          0.064953529466,
          0.041165266281,
          0.065816187379,
          0.043667169722,
          0.025953407935,
          -0.03167589782,
          -0.012457685265,
          -0.06659582572,
          -0.060880159195,
          0.012701676308,
          0.033363673139,
          -0.046303065275,
          0.073191721683,
          -0.005872971221,
          0.065123648934,
          0.030535219642,
          -0.054099769361,
          -0.023934353138,
          -0.040685208345,
          0.061209280323,
          -0.054099769361,
          -0.023934353138,
          -0.012815751748,
          -0.004555705841,
          -0.009762423473,
          -0.015432497192,
          0.00046021304,
          0.012507231172,
          -0.022449187363,
          0.028099762012
        ],
        "bias": 0.001231487926,
        "means": [
          0.000638085998,
          0.00131726059,
          0.002032076503,
          0.003415751045,
          0.006926937273,
          0.015195927771,
          0.028957882548,
          0.044886502721,
          0.015285615127,
          0.016688928248,
          0.017471752876,
          0.017620608973,
          0.02207935858,
          0.000999923204,
          0.002265246638,
          0.005374746302,
          0.016533527889,
          0.028054279474,
          0.003065686478,
          0.006091772198,
          0.576063279493,
          0.620402252861,
          0.571934400797,
          -0.045333159041,
          -0.065238797732,
          0.075480030478,
          0.15393267745,
          -0.045333159041,
          -0.065238797732,
          0.056,
          0.044,
          0.04,
          0.005797482444,
          0.003787768831,
          -0.002182275718,
          0.528749743781,
          2.94
        ],
        "stds": [
          0.020115056483,
          0.02879229373,
          0.036772364623,
          0.046547098853,
          0.055845743845,
          0.065953080603,
          0.099205790728,
          0.128623722509,
          0.012731952788,
          0.011681536918,
          0.010456767256,
          0.009780455913,
          0.015419241708,
          0.023235368992,
          0.032679093555,
          0.039994520689,
          0.061728041116,
          0.096584745108,
          0.015591579463,
          0.021430661739,
          0.290182706239,
          0.304692990059,
          0.337681272225,
          0.041150853933,
          0.067896227779,
          0.054081400446,
          0.084394097371,
          0.041150853933,
          0.067896227779,
          0.229921725811,
          0.205095099893,
          0.195959179423,
          0.372628691743,
          0.436903972277,
          0.483718627865,
          0.163617913287,
          2.053387445174
        ],
        "positive_rate": 0.516,
        "train_rows": 250,
        "latest_probability": 0.6515978494918038
      },
      "META": {
        "weights": [
          -0.015188765307,
          0.008623363642,
          0.003105001097,
          0.024215922408,
          0.070456516952,
          -0.0415686389,
          0.023215791128,
          -0.015562526201,
          -0.089438481736,
          -0.017485479693,
          0.041949593665,
          0.026002955516,
          -0.035012371419,
          0.006756663062,
          0.055622859115,
          0.035057298091,
          -0.000820086772,
          -0.011442595979,
          -0.023852043865,
          -0.057520100114,
          -0.003247842403,
          -0.0457901038,
          -0.023627193112,
          0.008217253748,
          -0.004751655609,
          -0.005006974864,
          0.004034555302,
          0.008217253748,
          -0.004751655609,
          -0.056298773067,
          -0.078210884683,
          -0.003821238499,
          0.02621438687,
          -0.0101171275,
          -0.056281276612,
          0.054200126942,
          -0.017601403452
        ],
        "bias": 0.001546731077,
        "means": [
          0.000667741671,
          0.001298875692,
          0.0017704798,
          0.002897816255,
          0.005969783575,
          0.009191937361,
          0.004119562036,
          0.018692810011,
          0.019252117321,
          0.020399514108,
          0.021175951878,
          0.021311623771,
          0.025400088118,
          0.000843445335,
          0.001741478529,
          0.003686986667,
          0.003206818571,
          0.005898876567,
          0.001776525922,
          0.001291115362,
          0.533730033586,
          0.491383564317,
          0.468700822615,
          -0.065414826243,
          -0.102805821388,
          0.089211873573,
          0.16955135934,
          -0.065414826243,
          -0.102805821388,
          0.088,
          0.048,
          0.044,
          0.006069531758,
          1.1970083e-05,
          0.02315911241,
          0.513565796446,
          2.548
        ],
        "stds": [
          0.023853089197,
          0.032289939341,
          0.040385882102,
          0.050726743945,
          0.07458916196,
          0.108196738045,
          0.143641789171,
          0.156500920832,
          0.014465518449,
          0.012445640474,
          0.010727373753,
          0.009811194014,
          0.014975554691,
          0.025563582783,
          0.038906685662,
          0.059848164071,
          0.090530630767,
          0.103980846292,
          0.025960236121,
          0.029254941061,
          0.326724407382,
          0.336613338267,
          0.340450226427,
          0.062315558513,
          0.089248825877,
          0.073988034846,
          0.150693016683,
          0.062315558513,
          0.089248825877,
          0.283294899354,
          0.213766227454,
          0.205095099893,
          0.465839678425,
          0.519864387988,
          0.672958724026,
          0.174320598952,
          1.88883456131
        ],
        "positive_rate": 0.548,
        "train_rows": 250,
        "latest_probability": 0.5376776313891282
      },
      "TSLA": {
        "weights": [
          -0.031860140291,
          -0.029503014978,
          -0.023400879881,
          -0.00389870416,
          0.032008597576,
          0.008729339803,
          0.001492021504,
          -0.027507636103,
          -0.103610023942,
          0.005400309749,
          -0.013579375717,
          0.051321624233,
          -0.025664825315,
          -0.024649882486,
          0.008519378199,
          0.000643481839,
          0.017915198517,
          -0.017926181948,
          0.029906755326,
          -0.010840129876,
          -0.05243093686,
          0.041707324203,
          0.078805689143,
          0.003012819785,
          -0.023162447491,
          -0.051916959948,
          0.003673382752,
          0.003012819785,
          -0.023162447491,
          0.016474022948,
          0.037342060856,
          -0.051358313209,
          -0.0039974176,
          0.040857078556,
          -0.004614945991,
          0.002253903139,
          0.016667833077
        ],
        "bias": -0.000167763302,
        "means": [
          0.001465048623,
          0.002560022462,
          0.003718466268,
          0.006399023181,
          0.012654646252,
          0.023441211868,
          0.053996898248,
          0.099228282825,
          0.035201085721,
          0.036734637235,
          0.036698790772,
          0.036102156393,
          0.045972253015,
          0.00150894326,
          0.003493457838,
          0.007807842881,
          0.01707992871,
          0.045392073795,
          0.003469629782,
          0.005277922793,
          0.544093877282,
          0.533107007085,
          0.519632623885,
          -0.095557669529,
          -0.145093564997,
          0.152581820944,
          0.278725909448,
          -0.095557669529,
          -0.145093564997,
          0.072,
          0.036,
          0.04,
          0.00167684879,
          0.012000886637,
          0.071654332976,
          0.531656757892,
          2.732
        ],
        "stds": [
          0.039749799489,
          0.054402355514,
          0.066359758121,
          0.081858790776,
          0.111330686273,
          0.157378662253,
          0.219066637462,
          0.214641536451,
          0.02007853397,
          0.016221470977,
          0.015170224014,
          0.015297973421,
          0.025120126098,
          0.041356982894,
          0.059885756825,
          0.087939702009,
          0.142998584173,
          0.157460458051,
          0.037679272163,
          0.048317927122,
          0.296964578972,
          0.323223424079,
          0.335860902254,
          0.08645402308,
          0.138218702713,
          0.113555124592,
          0.184450616517,
          0.08645402308,
          0.138218702713,
          0.258487910742,
          0.186290096355,
          0.195959179423,
          0.379505417012,
          0.429760879322,
          0.529846156361,
          0.160135358235,
          1.887902539857
        ],
        "positive_rate": 0.496,
        "train_rows": 250,
        "latest_probability": 0.4457306525879766
      },
      "NFLX": {
        "weights": [
          0.027871842114,
          0.029501842435,
          0.030400232205,
          -0.019847186681,
          0.000292939356,
          0.033753113271,
          0.045682482796,
          0.028365203838,
          0.037074653357,
          0.022340213257,
          -0.024262492991,
          -0.031225069988,
          0.079558086499,
          0.009923466649,
          -0.015407540407,
          0.029511278256,
          0.043480667177,
          0.039042068514,
          0.047404781669,
          0.034037887285,
          0.018818975919,
          -0.023068188586,
          -0.008153276033,
          0.023706509124,
          0.039913079259,
          0.076243914091,
          0.003012454212,
          0.023706509124,
          0.039913079259,
          0.011358191141,
          0.006196640513,
          0.055640658215,
          -0.016672475053,
          -0.004540659329,
          -0.008276237298,
          -0.020265758204,
          -0.054545807005
        ],
        "bias": -0.001851363261,
        "means": [
          -0.003120457156,
          -0.006203654371,
          -0.009099130979,
          -0.014750306142,
          -0.028765608129,
          -0.057202131346,
          -0.075819586299,
          -0.05262474408,
          0.025771385728,
          0.029786026628,
          0.034217911331,
          0.034190514437,
          0.024780034486,
          -0.01179727231,
          -0.025571952558,
          -0.051613468557,
          -0.084878767338,
          -0.06914715972,
          -0.030427973384,
          -0.01463982868,
          0.490759605584,
          0.47547986377,
          0.477394431044,
          -0.119427777357,
          -0.17111948875,
          0.084308359188,
          0.164591290323,
          -0.119427777357,
          -0.17111948875,
          0.1,
          0.088,
          0.068,
          0.051040487272,
          0.124223222638,
          0.398102423563,
          0.493132504891,
          2.348
        ],
        "stds": [
          0.060750504451,
          0.085731484287,
          0.105337680454,
          0.136079623677,
          0.191778881618,
          0.267611505647,
          0.335255055539,
          0.349833546168,
          0.054508766274,
          0.052828754593,
          0.050022631214,
          0.041876430745,
          0.013423540133,
          0.102937146079,
          0.15193147609,
          0.217886372181,
          0.30417102658,
          0.324778513196,
          0.124148600419,
          0.077457750029,
          0.354444778042,
          0.357002716154,
          0.36939990548,
          0.231622593437,
          0.285823234319,
          0.086984041182,
          0.171135170907,
          0.231622593437,
          0.285823234319,
          0.3,
          0.283294899354,
          0.251745903641,
          0.554233814667,
          0.771975547391,
          1.602452728577,
          0.209934013945,
          1.883320471932
        ],
        "positive_rate": 0.508,
        "train_rows": 250,
        "latest_probability": 0.4769292891737638
      }
    },
    "metrics": {
      "AMD": {
        "cumulative_return_pct": 90.073,
        "max_drawdown_pct": 29.4219,
        "sharpe": 2.588983,
        "trade_count": 2.0
      },
      "AMZN": {
        "cumulative_return_pct": -21.8813,
        "max_drawdown_pct": 30.6827,
        "sharpe": -2.082287,
        "trade_count": 10.0
      },
      "GOOGL": {
        "cumulative_return_pct": 2.6174,
        "max_drawdown_pct": 12.5867,
        "sharpe": 0.346866,
        "trade_count": 6.0
      },
      "NVDA": {
        "cumulative_return_pct": -6.8961,
        "max_drawdown_pct": 19.3236,
        "sharpe": -0.484456,
        "trade_count": 4.0
      },
      "AAPL": {
        "cumulative_return_pct": -18.5204,
        "max_drawdown_pct": 19.8527,
        "sharpe": -2.457257,
        "trade_count": 7.0
      },
      "META": {
        "cumulative_return_pct": -17.7762,
        "max_drawdown_pct": 23.1167,
        "sharpe": -1.125914,
        "trade_count": 7.0
      },
      "TSLA": {
        "cumulative_return_pct": -28.6849,
        "max_drawdown_pct": 31.3712,
        "sharpe": -2.122324,
        "trade_count": 10.0
      },
      "NFLX": {
        "cumulative_return_pct": 2.4112,
        "max_drawdown_pct": 21.2971,
        "sharpe": 0.311292,
        "trade_count": 4.0
      }
    },
    "summary": {
      "avg_return_pct": 0.1678,
      "min_return_pct": -28.6849,
      "max_drawdown_pct": 31.3712,
      "avg_sharpe": -0.628137,
      "positive_asset_count": 3,
      "meets_stopping_conditions": false,
      "objective_score": -122.571837
    }
  },
  {
    "config": {
      "iteration": 3,
      "name": "per_asset_arx_v003_h7_e50",
      "horizon": 7,
      "target_bps": 0.0,
      "entry_threshold": 0.5,
      "exit_threshold": 0.42,
      "l2": 0.01,
      "epochs": 60,
      "learning_rate": 0.025,
      "trend_min": 1.0,
      "min_range_position_60": 0.15,
      "max_volatility_20": 0.04,
      "stop_loss_pct": null,
      "trailing_stop_pct": null,
      "take_profit_pct": null,
      "max_hold_bars": null
    },
    "models": {
      "AMD": {
        "weights": [
          -0.033639465906,
          -0.03899331018,
          -0.061290815898,
          -0.027290939697,
          0.046438258802,
          -0.01007288077,
          -0.047599727232,
          -0.014377610951,
          0.019341756457,
          0.036293010411,
          0.030432797381,
          0.074046207277,
          0.021493097364,
          -0.055825488961,
          -0.019819529213,
          0.021636394338,
          -0.028430382123,
          -0.057497335784,
          -0.004837054387,
          -0.024754285722,
          0.071343282011,
          0.064117244418,
          0.075933836412,
          -0.006143763726,
          -0.064466292043,
          0.039506820202,
          0.031364847523,
          -0.006143763726,
          -0.064466292043,
          -0.020143685581,
          -0.016571653395,
          0.036530154607,
          0.023039701281,
          0.026284635671,
          0.001357346876,
          0.05677689648,
          0.054862237737
        ],
        "bias": 0.001826516909,
        "means": [
          0.002991440274,
          0.005783945174,
          0.00861520255,
          0.014266358568,
          0.028753666254,
          0.061662408274,
          0.136682492333,
          0.218289246718,
          0.03119559124,
          0.033282007992,
          0.034083726422,
          0.034164716999,
          0.038342333349,
          0.004753566102,
          0.010468543595,
          0.023226919576,
          0.065280440385,
          0.139898687951,
          0.012215033132,
          0.02756440394,
          0.533474305608,
          0.563822097828,
          0.566424093052,
          -0.086896481149,
          -0.116380737527,
          0.162272886274,
          0.375717907441,
          -0.086896481149,
          -0.116380737527,
          0.092,
          0.068,
          0.044,
          0.000771339076,
          -0.006483032081,
          0.002298520816,
          0.542841959113,
          2.652
        ],
        "stds": [
          0.03802807375,
          0.051941644853,
          0.066208469457,
          0.083850671436,
          0.115511602956,
          0.181956236277,
          0.244410428945,
          0.270466992041,
          0.022153180189,
          0.01904036751,
          0.016336765245,
          0.014972408243,
          0.022376501144,
          0.040526962713,
          0.060220478807,
          0.09172261257,
          0.148717642578,
          0.198585527247,
          0.040295156674,
          0.045100160384,
          0.304644270017,
          0.322995868873,
          0.342715815598,
          0.064646037381,
          0.086876773333,
          0.140783513377,
          0.265120106324,
          0.064646037381,
          0.086876773333,
          0.289025950392,
          0.251745903641,
          0.205095099893,
          0.435833585032,
          0.485576935524,
          0.504135034452,
          0.172027085422,
          2.014670196335
        ],
        "positive_rate": 0.544,
        "train_rows": 250,
        "latest_probability": 0.4254250111580821
      },
      "AMZN": {
        "weights": [
          -0.048743359199,
          -0.038176938949,
          -0.041304227192,
          -0.041748344097,
          -0.027229672534,
          0.020799200031,
          0.002324437827,
          -0.040638399059,
          -0.010578910935,
          0.02116641035,
          0.036395787498,
          0.028754735055,
          -0.055243085778,
          -0.050377809192,
          -0.047386884947,
          -0.013468263086,
          -0.01364459544,
          -0.05014020626,
          0.019489940629,
          0.036248586794,
          0.046996433561,
          -0.036204879733,
          0.038578638945,
          0.067868495424,
          -0.021528205325,
          -0.043375204966,
          0.064237019959,
          0.067868495424,
          -0.021528205325,
          -0.004565173113,
          -0.039166797366,
          0.025162125358,
          0.056914386247,
          0.010897137765,
          -0.036467585745,
          0.021739710608,
          -0.013763646858
        ],
        "bias": 0.001267164479,
        "means": [
          0.00041822185,
          0.000761063338,
          0.001050580053,
          0.001713698801,
          0.003065472055,
          0.003199953249,
          0.009107246911,
          0.020368197375,
          0.018498540979,
          0.019365534033,
          0.019716054609,
          0.019641417846,
          0.023379926761,
          0.000426345792,
          0.000812935642,
          0.001598175583,
          0.001895189205,
          0.006400788213,
          0.000800562227,
          0.000362066243,
          0.532071358274,
          0.497979178182,
          0.47133665806,
          -0.056152269016,
          -0.084624814992,
          0.073140830039,
          0.130025030822,
          -0.056152269016,
          -0.084624814992,
          0.06,
          0.036,
          0.04,
          0.00644623793,
          0.010460850858,
          0.042856918472,
          0.513024008527,
          2.644
        ],
        "stds": [
          0.021485404294,
          0.029262836836,
          0.035794152283,
          0.043263080955,
          0.056924286112,
          0.075920629595,
          0.10015476362,
          0.114676095553,
          0.011895983275,
          0.010079570855,
          0.008847580583,
          0.008291320241,
          0.014554050879,
          0.02234063459,
          0.031739137108,
          0.044035597817,
          0.065976467462,
          0.076980389108,
          0.018208283497,
          0.022005373898,
          0.29881624124,
          0.319819265756,
          0.318489295797,
          0.045904929039,
          0.076286641065,
          0.052903648666,
          0.107308997299,
          0.045904929039,
          0.076286641065,
          0.237486841741,
          0.186290096355,
          0.195959179423,
          0.392839972916,
          0.442675301218,
          0.535854509676,
          0.149478440152,
          1.909257447282
        ],
        "positive_rate": 0.54,
        "train_rows": 250,
        "latest_probability": 0.4397920404712359
      },
      "GOOGL": {
        "weights": [
          -0.0196775372,
          -0.018378211651,
          -0.013706937758,
          -0.02589794659,
          0.002703386787,
          -0.032718648529,
          -0.002094603476,
          -0.012835097104,
          -0.024431491213,
          -0.046658281613,
          -0.12855943215,
          -0.020432491027,
          0.047749150725,
          -0.026607243879,
          -0.01705819911,
          -0.023626707469,
          -0.006542108434,
          -0.011212186503,
          -0.023327616811,
          0.036505773419,
          0.027018680624,
          0.091617887581,
          0.126371026985,
          0.061791958896,
          0.018085216931,
          -0.068516491169,
          0.054896036229,
          0.061791958896,
          0.018085216931,
          -0.029272023563,
          -0.015421032451,
          -0.019080170012,
          0.052292514812,
          0.040219654,
          -0.016249379992,
          0.010289915257,
          0.094591511951
        ],
        "bias": 0.009782704332,
        "means": [
          0.00221623188,
          0.004378596955,
          0.006472242737,
          0.010661090056,
          0.020922664533,
          0.042421552586,
          0.089195863362,
          0.135271018701,
          0.018129087753,
          0.018968161542,
          0.019049687601,
          0.018601491787,
          0.024504053927,
          0.004054838254,
          0.008907428107,
          0.018764346758,
          0.047582813269,
          0.092455974289,
          0.009926488834,
          0.016679504988,
          0.622133206479,
          0.621008088938,
          0.568362328333,
          -0.045445736641,
          -0.071453045443,
          0.099312990984,
          0.223683343005,
          -0.045445736641,
          -0.071453045443,
          0.096,
          0.092,
          0.04,
          7.8166069e-05,
          -0.00226094357,
          0.025652563654,
          0.574149842203,
          3.296
        ],
        "stds": [
          0.020280481468,
          0.027963325855,
          0.035106380099,
          0.044045623483,
          0.060435187626,
          0.092839106288,
          0.148082248053,
          0.198248208027,
          0.009481066079,
          0.007623535199,
          0.006604973132,
          0.006753418832,
          0.012632267797,
          0.021972167792,
          0.032142432186,
          0.048904512284,
          0.092948171752,
          0.152448712692,
          0.02176574951,
          0.034270818696,
          0.310290473029,
          0.37389632355,
          0.3891786312,
          0.042270748451,
          0.081813345045,
          0.065073599467,
          0.155036770097,
          0.042270748451,
          0.081813345045,
          0.294591242232,
          0.289025950392,
          0.195959179423,
          0.382385620875,
          0.412989463881,
          0.439523973627,
          0.171267772775,
          2.047531196344
        ],
        "positive_rate": 0.64,
        "train_rows": 250,
        "latest_probability": 0.40834513489571816
      },
      "NVDA": {
        "weights": [
          -0.02873240913,
          0.0089500341,
          -0.046451857375,
          -0.087371537405,
          -0.074222327597,
          0.062538148947,
          0.080544819612,
          0.073700810713,
          -0.006976272996,
          0.051854794022,
          0.001010300665,
          0.059989516483,
          -0.037118792068,
          -0.041992045964,
          -0.078001963256,
          -0.046467230622,
          0.038653502126,
          0.009468574246,
          0.066357793797,
          0.067249473906,
          -0.003541530203,
          0.046636782589,
          0.034757002131,
          -0.019299320096,
          -0.040698287519,
          0.033933130252,
          0.174650077109,
          -0.019299320096,
          -0.040698287519,
          0.02967496605,
          0.040966386622,
          0.068798763816,
          -0.000182319305,
          0.034869716328,
          -0.033128666671,
          -0.011883023485,
          -0.012868870718
        ],
        "bias": 0.008254511949,
        "means": [
          0.001680882305,
          0.003082021534,
          0.004496204082,
          0.007582453622,
          0.014702153846,
          0.029697766461,
          0.067797698342,
          0.116851398921,
          0.026220437217,
          0.027391514457,
          0.027753967286,
          0.027284106858,
          0.033225141572,
          0.00245724484,
          0.00522526831,
          0.011275929202,
          0.033192573636,
          0.074274895712,
          0.005745806258,
          0.013857483133,
          0.591440289361,
          0.572798511986,
          0.573018490683,
          -0.06916031293,
          -0.098545624989,
          0.124620187255,
          0.271362243143,
          -0.06916031293,
          -0.098545624989,
          0.092,
          0.068,
          0.02,
          0.008301465261,
          0.013309571937,
          -0.018433680103,
          0.551878070325,
          2.84
        ],
        "stds": [
          0.031037380718,
          0.040789841738,
          0.051472891506,
          0.062992210973,
          0.079931406844,
          0.108371350456,
          0.170549572614,
          0.215258238913,
          0.018067687339,
          0.015824329449,
          0.014429379317,
          0.014466811564,
          0.021367783162,
          0.032106517108,
          0.045529114035,
          0.061397176048,
          0.102719478959,
          0.140912917554,
          0.025311440642,
          0.035165185795,
          0.303080070731,
          0.336947762174,
          0.359241150726,
          0.063888516993,
          0.096892758147,
          0.085935135333,
          0.233497408015,
          0.063888516993,
          0.096892758147,
          0.289025950392,
          0.251745903641,
          0.14,
          0.397130790813,
          0.445261814324,
          0.356207024613,
          0.153536191613,
          2.007585614613
        ],
        "positive_rate": 0.604,
        "train_rows": 250,
        "latest_probability": 0.4474332447334525
      },
      "AAPL": {
        "weights": [
          -0.003752212819,
          -0.005211328974,
          -0.030062351441,
          -0.086172649124,
          -0.102376134411,
          -0.050074938796,
          -0.002310803727,
          0.072282576606,
          0.090490635217,
          0.082135905427,
          0.03712877991,
          0.024843385077,
          0.007071523229,
          -0.035289365411,
          -0.094062158783,
          -0.086804821976,
          -0.005851280951,
          0.01026172721,
          -0.032275418911,
          0.066709773887,
          -0.024884796397,
          0.048676862235,
          0.010314502577,
          -0.066933164827,
          -0.025984183662,
          -0.059527246846,
          0.052347307624,
          -0.066933164827,
          -0.025984183662,
          -0.001289251446,
          0.006596137606,
          0.004512553415,
          -0.000990811306,
          0.022413599225,
          0.011720374282,
          -0.018540909336,
          0.005265076155
        ],
        "bias": 0.008317257601,
        "means": [
          0.000638085998,
          0.00131726059,
          0.002032076503,
          0.003415751045,
          0.006926937273,
          0.015195927771,
          0.028957882548,
          0.044886502721,
          0.015285615127,
          0.016688928248,
          0.017471752876,
          0.017620608973,
          0.02207935858,
          0.000999923204,
          0.002265246638,
          0.005374746302,
          0.016533527889,
          0.028054279474,
          0.003065686478,
          0.006091772198,
          0.576063279493,
          0.620402252861,
          0.571934400797,
          -0.045333159041,
          -0.065238797732,
          0.075480030478,
          0.15393267745,
          -0.045333159041,
          -0.065238797732,
          0.056,
          0.044,
          0.04,
          0.005797482444,
          0.003787768831,
          -0.002182275718,
          0.528749743781,
          2.94
        ],
        "stds": [
          0.020115056483,
          0.02879229373,
          0.036772364623,
          0.046547098853,
          0.055845743845,
          0.065953080603,
          0.099205790728,
          0.128623722509,
          0.012731952788,
          0.011681536918,
          0.010456767256,
          0.009780455913,
          0.015419241708,
          0.023235368992,
          0.032679093555,
          0.039994520689,
          0.061728041116,
          0.096584745108,
          0.015591579463,
          0.021430661739,
          0.290182706239,
          0.304692990059,
          0.337681272225,
          0.041150853933,
          0.067896227779,
          0.054081400446,
          0.084394097371,
          0.041150853933,
          0.067896227779,
          0.229921725811,
          0.205095099893,
          0.195959179423,
          0.372628691743,
          0.436903972277,
          0.483718627865,
          0.163617913287,
          2.053387445174
        ],
        "positive_rate": 0.544,
        "train_rows": 250,
        "latest_probability": 0.6734925897832081
      },
      "META": {
        "weights": [
          -0.014081292338,
          -0.00778271933,
          0.007767160238,
          0.087386700303,
          0.066209354559,
          -0.033857715387,
          0.019483297025,
          -0.036833894898,
          -0.028001174865,
          0.004990277752,
          0.050001433601,
          0.041503859689,
          -0.052296443301,
          0.017054723167,
          0.083016182892,
          0.036471145763,
          -0.001928329054,
          -0.031255517628,
          -0.015363612915,
          -0.087105985996,
          -0.009804004235,
          -0.054963528448,
          -0.043778983032,
          -0.006546290707,
          -0.012753720583,
          0.006927374015,
          0.017113325822,
          -0.006546290707,
          -0.012753720583,
          -0.061474562537,
          -0.089528373322,
          -0.063924987824,
          0.008165702177,
          -0.038642866176,
          -0.072579841326,
          0.063239534584,
          -0.030110806042
        ],
        "bias": 0.001000554628,
        "means": [
          0.000667741671,
          0.001298875692,
          0.0017704798,
          0.002897816255,
          0.005969783575,
          0.009191937361,
          0.004119562036,
          0.018692810011,
          0.019252117321,
          0.020399514108,
          0.021175951878,
          0.021311623771,
          0.025400088118,
          0.000843445335,
          0.001741478529,
          0.003686986667,
          0.003206818571,
          0.005898876567,
          0.001776525922,
          0.001291115362,
          0.533730033586,
          0.491383564317,
          0.468700822615,
          -0.065414826243,
          -0.102805821388,
          0.089211873573,
          0.16955135934,
          -0.065414826243,
          -0.102805821388,
          0.088,
          0.048,
          0.044,
          0.006069531758,
          1.1970083e-05,
          0.02315911241,
          0.513565796446,
          2.548
        ],
        "stds": [
          0.023853089197,
          0.032289939341,
          0.040385882102,
          0.050726743945,
          0.07458916196,
          0.108196738045,
          0.143641789171,
          0.156500920832,
          0.014465518449,
          0.012445640474,
          0.010727373753,
          0.009811194014,
          0.014975554691,
          0.025563582783,
          0.038906685662,
          0.059848164071,
          0.090530630767,
          0.103980846292,
          0.025960236121,
          0.029254941061,
          0.326724407382,
          0.336613338267,
          0.340450226427,
          0.062315558513,
          0.089248825877,
          0.073988034846,
          0.150693016683,
          0.062315558513,
          0.089248825877,
          0.283294899354,
          0.213766227454,
          0.205095099893,
          0.465839678425,
          0.519864387988,
          0.672958724026,
          0.174320598952,
          1.88883456131
        ],
        "positive_rate": 0.516,
        "train_rows": 250,
        "latest_probability": 0.5725039932176048
      },
      "TSLA": {
        "weights": [
          -0.008844641926,
          -0.022588738404,
          -0.040792912313,
          -0.00595026023,
          0.027591199339,
          0.01917952512,
          -0.03926242847,
          -0.03470280907,
          -0.038186179239,
          0.017484450881,
          -0.008312832813,
          0.052112665407,
          -0.025294055911,
          -0.021580561269,
          0.005161583719,
          -0.009739719119,
          -0.000721436509,
          -0.049753058758,
          0.02669484655,
          -0.031666122201,
          -0.071085749266,
          0.029172633223,
          0.074016791431,
          -0.004898854648,
          -0.035456078698,
          -0.034493048455,
          -0.007726344117,
          -0.004898854648,
          -0.035456078698,
          0.015155278851,
          0.039219148708,
          -0.050015843677,
          -0.00628640841,
          0.039577347572,
          0.009604338809,
          0.007205683054,
          0.012285461671
        ],
        "bias": 0.000993938878,
        "means": [
          0.001465048623,
          0.002560022462,
          0.003718466268,
          0.006399023181,
          0.012654646252,
          0.023441211868,
          0.053996898248,
          0.099228282825,
          0.035201085721,
          0.036734637235,
          0.036698790772,
          0.036102156393,
          0.045972253015,
          0.00150894326,
          0.003493457838,
          0.007807842881,
          0.01707992871,
          0.045392073795,
          0.003469629782,
          0.005277922793,
          0.544093877282,
          0.533107007085,
          0.519632623885,
          -0.095557669529,
          -0.145093564997,
          0.152581820944,
          0.278725909448,
          -0.095557669529,
          -0.145093564997,
          0.072,
          0.036,
          0.04,
          0.00167684879,
          0.012000886637,
          0.071654332976,
          0.531656757892,
          2.732
        ],
        "stds": [
          0.039749799489,
          0.054402355514,
          0.066359758121,
          0.081858790776,
          0.111330686273,
          0.157378662253,
          0.219066637462,
          0.214641536451,
          0.02007853397,
          0.016221470977,
          0.015170224014,
          0.015297973421,
          0.025120126098,
          0.041356982894,
          0.059885756825,
          0.087939702009,
          0.142998584173,
          0.157460458051,
          0.037679272163,
          0.048317927122,
          0.296964578972,
          0.323223424079,
          0.335860902254,
          0.08645402308,
          0.138218702713,
          0.113555124592,
          0.184450616517,
          0.08645402308,
          0.138218702713,
          0.258487910742,
          0.186290096355,
          0.195959179423,
          0.379505417012,
          0.429760879322,
          0.529846156361,
          0.160135358235,
          1.887902539857
        ],
        "positive_rate": 0.54,
        "train_rows": 250,
        "latest_probability": 0.4300977537147629
      },
      "NFLX": {
        "weights": [
          0.004642486653,
          0.016187473543,
          0.028839772622,
          -0.007866663947,
          0.017820449267,
          0.037867312768,
          0.073994417755,
          0.052318482628,
          0.018760603071,
          0.007109302421,
          -0.023160047028,
          -0.066419019993,
          0.118025381861,
          -0.006260926613,
          0.00980048709,
          0.033869441695,
          0.070515460345,
          0.069752298624,
          0.056054793055,
          0.064525741212,
          0.004842295436,
          -0.037884284506,
          0.007834747703,
          0.024194547914,
          0.070269742556,
          0.078238796972,
          -0.006236994766,
          0.024194547914,
          0.070269742556,
          -0.000336394086,
          -0.006681421194,
          0.051870781844,
          0.013053197239,
          0.010435335989,
          -0.012288457624,
          -0.017165640613,
          -0.048656800272
        ],
        "bias": -0.009425930755,
        "means": [
          -0.003120457156,
          -0.006203654371,
          -0.009099130979,
          -0.014750306142,
          -0.028765608129,
          -0.057202131346,
          -0.075819586299,
          -0.05262474408,
          0.025771385728,
          0.029786026628,
          0.034217911331,
          0.034190514437,
          0.024780034486,
          -0.01179727231,
          -0.025571952558,
          -0.051613468557,
          -0.084878767338,
          -0.06914715972,
          -0.030427973384,
          -0.01463982868,
          0.490759605584,
          0.47547986377,
          0.477394431044,
          -0.119427777357,
          -0.17111948875,
          0.084308359188,
          0.164591290323,
          -0.119427777357,
          -0.17111948875,
          0.1,
          0.088,
          0.068,
          0.051040487272,
          0.124223222638,
          0.398102423563,
          0.493132504891,
          2.348
        ],
        "stds": [
          0.060750504451,
          0.085731484287,
          0.105337680454,
          0.136079623677,
          0.191778881618,
          0.267611505647,
          0.335255055539,
          0.349833546168,
          0.054508766274,
          0.052828754593,
          0.050022631214,
          0.041876430745,
          0.013423540133,
          0.102937146079,
          0.15193147609,
          0.217886372181,
          0.30417102658,
          0.324778513196,
          0.124148600419,
          0.077457750029,
          0.354444778042,
          0.357002716154,
          0.36939990548,
          0.231622593437,
          0.285823234319,
          0.086984041182,
          0.171135170907,
          0.231622593437,
          0.285823234319,
          0.3,
          0.283294899354,
          0.251745903641,
          0.554233814667,
          0.771975547391,
          1.602452728577,
          0.209934013945,
          1.883320471932
        ],
        "positive_rate": 0.48,
        "train_rows": 250,
        "latest_probability": 0.45763975566760734
      }
    },
    "metrics": {
      "AMD": {
        "cumulative_return_pct": 76.0725,
        "max_drawdown_pct": 29.4219,
        "sharpe": 2.393235,
        "trade_count": 2.0
      },
      "AMZN": {
        "cumulative_return_pct": -10.6867,
        "max_drawdown_pct": 18.1272,
        "sharpe": -0.881973,
        "trade_count": 7.0
      },
      "GOOGL": {
        "cumulative_return_pct": -1.381,
        "max_drawdown_pct": 15.9237,
        "sharpe": 0.007569,
        "trade_count": 8.0
      },
      "NVDA": {
        "cumulative_return_pct": -6.3729,
        "max_drawdown_pct": 19.3236,
        "sharpe": -0.412414,
        "trade_count": 4.0
      },
      "AAPL": {
        "cumulative_return_pct": -18.4241,
        "max_drawdown_pct": 18.3426,
        "sharpe": -2.653988,
        "trade_count": 8.0
      },
      "META": {
        "cumulative_return_pct": -18.0069,
        "max_drawdown_pct": 23.3324,
        "sharpe": -1.123475,
        "trade_count": 9.0
      },
      "TSLA": {
        "cumulative_return_pct": -26.4649,
        "max_drawdown_pct": 29.2349,
        "sharpe": -1.863114,
        "trade_count": 10.0
      },
      "NFLX": {
        "cumulative_return_pct": 2.4112,
        "max_drawdown_pct": 21.2971,
        "sharpe": 0.311292,
        "trade_count": 4.0
      }
    },
    "summary": {
      "avg_return_pct": -0.3566,
      "min_return_pct": -26.4649,
      "max_drawdown_pct": 29.4219,
      "avg_sharpe": -0.527859,
      "positive_asset_count": 2,
      "meets_stopping_conditions": false,
      "objective_score": -122.607817
    }
  },
  {
    "config": {
      "iteration": 4,
      "name": "per_asset_arx_v004_h10_e50",
      "horizon": 10,
      "target_bps": 25.0,
      "entry_threshold": 0.5,
      "exit_threshold": 0.42,
      "l2": 0.01,
      "epochs": 60,
      "learning_rate": 0.025,
      "trend_min": 1.0,
      "min_range_position_60": 0.15,
      "max_volatility_20": 0.04,
      "stop_loss_pct": null,
      "trailing_stop_pct": null,
      "take_profit_pct": null,
      "max_hold_bars": null
    },
    "models": {
      "AMD": {
        "weights": [
          -0.026284780511,
          -0.004780088972,
          -0.015846918341,
          -0.004983768908,
          0.052022811294,
          0.001618340186,
          -0.071885417876,
          -0.051183088417,
          0.014535312663,
          0.030993660333,
          0.025562619406,
          0.088821791711,
          0.014571301804,
          -0.014074681096,
          0.015760036254,
          0.03572496418,
          -0.029780724306,
          -0.084936655533,
          0.007558163765,
          -0.071914634932,
          0.095882431991,
          0.072780158066,
          0.085777151845,
          -0.006750717089,
          -0.06744693931,
          0.064849508052,
          0.042657873431,
          -0.006750717089,
          -0.06744693931,
          -0.013823024127,
          -0.022274919894,
          0.004085901077,
          0.012931428444,
          0.025174112572,
          -0.01369440925,
          0.071075267197,
          0.052998280816
        ],
        "bias": 0.003194291785,
        "means": [
          0.002991440274,
          0.005783945174,
          0.00861520255,
          0.014266358568,
          0.028753666254,
          0.061662408274,
          0.136682492333,
          0.218289246718,
          0.03119559124,
          0.033282007992,
          0.034083726422,
          0.034164716999,
          0.038342333349,
          0.004753566102,
          0.010468543595,
          0.023226919576,
          0.065280440385,
          0.139898687951,
          0.012215033132,
          0.02756440394,
          0.533474305608,
          0.563822097828,
          0.566424093052,
          -0.086896481149,
          -0.116380737527,
          0.162272886274,
          0.375717907441,
          -0.086896481149,
          -0.116380737527,
          0.092,
          0.068,
          0.044,
          0.000771339076,
          -0.006483032081,
          0.002298520816,
          0.542841959113,
          2.652
        ],
        "stds": [
          0.03802807375,
          0.051941644853,
          0.066208469457,
          0.083850671436,
          0.115511602956,
          0.181956236277,
          0.244410428945,
          0.270466992041,
          0.022153180189,
          0.01904036751,
          0.016336765245,
          0.014972408243,
          0.022376501144,
          0.040526962713,
          0.060220478807,
          0.09172261257,
          0.148717642578,
          0.198585527247,
          0.040295156674,
          0.045100160384,
          0.304644270017,
          0.322995868873,
          0.342715815598,
          0.064646037381,
          0.086876773333,
          0.140783513377,
          0.265120106324,
          0.064646037381,
          0.086876773333,
          0.289025950392,
          0.251745903641,
          0.205095099893,
          0.435833585032,
          0.485576935524,
          0.504135034452,
          0.172027085422,
          2.014670196335
        ],
        "positive_rate": 0.556,
        "train_rows": 250,
        "latest_probability": 0.426525729003984
      },
      "AMZN": {
        "weights": [
          -0.003256999846,
          0.006449932594,
          -0.016050399465,
          -0.026080944351,
          -0.064821015146,
          -0.002949493418,
          0.049392022465,
          -0.062170946082,
          -0.027068422866,
          0.008437542318,
          0.035078879593,
          0.078170858468,
          -0.050926759973,
          -0.012887587645,
          -0.037007251154,
          -0.023678124433,
          0.016208438509,
          -0.061749980238,
          -0.013509024717,
          0.020855725722,
          -0.009665194702,
          -0.043798831788,
          0.002268166223,
          0.051716251885,
          -0.037851135352,
          -0.047964096999,
          0.098500717712,
          0.051716251885,
          -0.037851135352,
          -0.042213801449,
          -0.059089266845,
          -0.012301639996,
          -0.025489474214,
          -0.063365154122,
          -0.102165871557,
          0.038204953815,
          -0.025492758659
        ],
        "bias": 0.0022800024,
        "means": [
          0.00041822185,
          0.000761063338,
          0.001050580053,
          0.001713698801,
          0.003065472055,
          0.003199953249,
          0.009107246911,
          0.020368197375,
          0.018498540979,
          0.019365534033,
          0.019716054609,
          0.019641417846,
          0.023379926761,
          0.000426345792,
          0.000812935642,
          0.001598175583,
          0.001895189205,
          0.006400788213,
          0.000800562227,
          0.000362066243,
          0.532071358274,
          0.497979178182,
          0.47133665806,
          -0.056152269016,
          -0.084624814992,
          0.073140830039,
          0.130025030822,
          -0.056152269016,
          -0.084624814992,
          0.06,
          0.036,
          0.04,
          0.00644623793,
          0.010460850858,
          0.042856918472,
          0.513024008527,
          2.644
        ],
        "stds": [
          0.021485404294,
          0.029262836836,
          0.035794152283,
          0.043263080955,
          0.056924286112,
          0.075920629595,
          0.10015476362,
          0.114676095553,
          0.011895983275,
          0.010079570855,
          0.008847580583,
          0.008291320241,
          0.014554050879,
          0.02234063459,
          0.031739137108,
          0.044035597817,
          0.065976467462,
          0.076980389108,
          0.018208283497,
          0.022005373898,
          0.29881624124,
          0.319819265756,
          0.318489295797,
          0.045904929039,
          0.076286641065,
          0.052903648666,
          0.107308997299,
          0.045904929039,
          0.076286641065,
          0.237486841741,
          0.186290096355,
          0.195959179423,
          0.392839972916,
          0.442675301218,
          0.535854509676,
          0.149478440152,
          1.909257447282
        ],
        "positive_rate": 0.56,
        "train_rows": 250,
        "latest_probability": 0.46841043617779576
      },
      "GOOGL": {
        "weights": [
          -0.028302702792,
          -0.03928503916,
          -0.025852737791,
          -0.007422974573,
          -0.009817660034,
          -0.022956974599,
          -0.014686826683,
          -0.028172217417,
          0.006946456502,
          -0.058931334668,
          -0.14508764847,
          0.000204140473,
          0.046299735981,
          -0.029673366991,
          -0.010839950118,
          -0.02924307998,
          -0.003016603577,
          -0.021372830249,
          -0.000130671527,
          0.030849706874,
          0.0394980351,
          0.128077213796,
          0.151006023584,
          0.095323026999,
          0.026067395481,
          -0.080931480037,
          0.071036108158,
          0.095323026999,
          0.026067395481,
          -0.023796993408,
          -0.009495657963,
          -0.034588081335,
          0.015309633846,
          0.006326285142,
          -0.04753590626,
          -0.008586811301,
          0.105626328684
        ],
        "bias": 0.016510072637,
        "means": [
          0.00221623188,
          0.004378596955,
          0.006472242737,
          0.010661090056,
          0.020922664533,
          0.042421552586,
          0.089195863362,
          0.135271018701,
          0.018129087753,
          0.018968161542,
          0.019049687601,
          0.018601491787,
          0.024504053927,
          0.004054838254,
          0.008907428107,
          0.018764346758,
          0.047582813269,
          0.092455974289,
          0.009926488834,
          0.016679504988,
          0.622133206479,
          0.621008088938,
          0.568362328333,
          -0.045445736641,
          -0.071453045443,
          0.099312990984,
          0.223683343005,
          -0.045445736641,
          -0.071453045443,
          0.096,
          0.092,
          0.04,
          7.8166069e-05,
          -0.00226094357,
          0.025652563654,
          0.574149842203,
          3.296
        ],
        "stds": [
          0.020280481468,
          0.027963325855,
          0.035106380099,
          0.044045623483,
          0.060435187626,
          0.092839106288,
          0.148082248053,
          0.198248208027,
          0.009481066079,
          0.007623535199,
          0.006604973132,
          0.006753418832,
          0.012632267797,
          0.021972167792,
          0.032142432186,
          0.048904512284,
          0.092948171752,
          0.152448712692,
          0.02176574951,
          0.034270818696,
          0.310290473029,
          0.37389632355,
          0.3891786312,
          0.042270748451,
          0.081813345045,
          0.065073599467,
          0.155036770097,
          0.042270748451,
          0.081813345045,
          0.294591242232,
          0.289025950392,
          0.195959179423,
          0.382385620875,
          0.412989463881,
          0.439523973627,
          0.171267772775,
          2.047531196344
        ],
        "positive_rate": 0.656,
        "train_rows": 250,
        "latest_probability": 0.4010612337913378
      },
      "NVDA": {
        "weights": [
          -0.035155729831,
          -0.020430587216,
          -0.045179920653,
          -0.079660404194,
          -0.050701456951,
          0.065291049159,
          0.067090422186,
          0.03612211576,
          0.027292194391,
          0.035522951012,
          0.026379326851,
          0.057736916658,
          0.006595416572,
          -0.052608316968,
          -0.065558221535,
          -0.015105352309,
          0.040845101417,
          -0.018043284527,
          0.083652117366,
          0.036589904585,
          0.030161151366,
          0.036291611384,
          0.043231002279,
          0.004046425737,
          -0.048729297085,
          0.067672859227,
          0.168125132418,
          0.004046425737,
          -0.048729297085,
          0.03024829098,
          0.021469318676,
          0.033517776323,
          0.056196579591,
          0.072675020828,
          -0.026082802815,
          0.045214434718,
          -0.000867982822
        ],
        "bias": 0.006498638231,
        "means": [
          0.001680882305,
          0.003082021534,
          0.004496204082,
          0.007582453622,
          0.014702153846,
          0.029697766461,
          0.067797698342,
          0.116851398921,
          0.026220437217,
          0.027391514457,
          0.027753967286,
          0.027284106858,
          0.033225141572,
          0.00245724484,
          0.00522526831,
          0.011275929202,
          0.033192573636,
          0.074274895712,
          0.005745806258,
          0.013857483133,
          0.591440289361,
          0.572798511986,
          0.573018490683,
          -0.06916031293,
          -0.098545624989,
          0.124620187255,
          0.271362243143,
          -0.06916031293,
          -0.098545624989,
          0.092,
          0.068,
          0.02,
          0.008301465261,
          0.013309571937,
          -0.018433680103,
          0.551878070325,
          2.84
        ],
        "stds": [
          0.031037380718,
          0.040789841738,
          0.051472891506,
          0.062992210973,
          0.079931406844,
          0.108371350456,
          0.170549572614,
          0.215258238913,
          0.018067687339,
          0.015824329449,
          0.014429379317,
          0.014466811564,
          0.021367783162,
          0.032106517108,
          0.045529114035,
          0.061397176048,
          0.102719478959,
          0.140912917554,
          0.025311440642,
          0.035165185795,
          0.303080070731,
          0.336947762174,
          0.359241150726,
          0.063888516993,
          0.096892758147,
          0.085935135333,
          0.233497408015,
          0.063888516993,
          0.096892758147,
          0.289025950392,
          0.251745903641,
          0.14,
          0.397130790813,
          0.445261814324,
          0.356207024613,
          0.153536191613,
          2.007585614613
        ],
        "positive_rate": 0.58,
        "train_rows": 250,
        "latest_probability": 0.4007267096373378
      },
      "AAPL": {
        "weights": [
          -0.02115123261,
          -0.057835669354,
          -0.068270817931,
          -0.077281751315,
          -0.082024408609,
          -0.014994084378,
          -0.007026219006,
          0.072146260076,
          0.10701260064,
          0.074831973904,
          0.042587894851,
          -0.010530202065,
          0.05066789476,
          -0.069516952466,
          -0.09657577724,
          -0.074663557533,
          -0.005352831639,
          0.015017617871,
          -0.00022354819,
          0.084005929884,
          0.015388142806,
          0.048233177505,
          -0.003734724325,
          -0.027264704766,
          -0.00134529011,
          -0.003935540886,
          0.062795234757,
          -0.027264704766,
          -0.00134529011,
          -0.04515980977,
          -0.044371132412,
          0.034848947057,
          0.046453282635,
          0.078181799919,
          0.089491126377,
          -0.014284410731,
          0.007710381163
        ],
        "bias": 0.007033583677,
        "means": [
          0.000638085998,
          0.00131726059,
          0.002032076503,
          0.003415751045,
          0.006926937273,
          0.015195927771,
          0.028957882548,
          0.044886502721,
          0.015285615127,
          0.016688928248,
          0.017471752876,
          0.017620608973,
          0.02207935858,
          0.000999923204,
          0.002265246638,
          0.005374746302,
          0.016533527889,
          0.028054279474,
          0.003065686478,
          0.006091772198,
          0.576063279493,
          0.620402252861,
          0.571934400797,
          -0.045333159041,
          -0.065238797732,
          0.075480030478,
          0.15393267745,
          -0.045333159041,
          -0.065238797732,
          0.056,
          0.044,
          0.04,
          0.005797482444,
          0.003787768831,
          -0.002182275718,
          0.528749743781,
          2.94
        ],
        "stds": [
          0.020115056483,
          0.02879229373,
          0.036772364623,
          0.046547098853,
          0.055845743845,
          0.065953080603,
          0.099205790728,
          0.128623722509,
          0.012731952788,
          0.011681536918,
          0.010456767256,
          0.009780455913,
          0.015419241708,
          0.023235368992,
          0.032679093555,
          0.039994520689,
          0.061728041116,
          0.096584745108,
          0.015591579463,
          0.021430661739,
          0.290182706239,
          0.304692990059,
          0.337681272225,
          0.041150853933,
          0.067896227779,
          0.054081400446,
          0.084394097371,
          0.041150853933,
          0.067896227779,
          0.229921725811,
          0.205095099893,
          0.195959179423,
          0.372628691743,
          0.436903972277,
          0.483718627865,
          0.163617913287,
          2.053387445174
        ],
        "positive_rate": 0.52,
        "train_rows": 250,
        "latest_probability": 0.5779976768553581
      },
      "META": {
        "weights": [
          0.004084808065,
          0.028210585402,
          0.032213908895,
          0.062871567209,
          0.026939072926,
          -0.013339329687,
          0.028628582272,
          -0.063905911774,
          -0.021537540495,
          -0.001435139675,
          0.052474023261,
          0.048575160109,
          -0.03383489039,
          0.028301887553,
          0.059097054033,
          0.013844310346,
          -0.005309099332,
          -0.037822161852,
          0.010236479639,
          -0.098307321662,
          -0.037258736331,
          -0.090511820827,
          -0.042925763984,
          -0.011526177935,
          -0.020483778342,
          0.020590100001,
          0.024267293965,
          -0.011526177935,
          -0.020483778342,
          0.014949837764,
          -0.041114895572,
          -0.076066882011,
          0.027994613823,
          -0.008161679766,
          -0.052691431784,
          0.010176537147,
          -0.047913415102
        ],
        "bias": 0.000632612246,
        "means": [
          0.000667741671,
          0.001298875692,
          0.0017704798,
          0.002897816255,
          0.005969783575,
          0.009191937361,
          0.004119562036,
          0.018692810011,
          0.019252117321,
          0.020399514108,
          0.021175951878,
          0.021311623771,
          0.025400088118,
          0.000843445335,
          0.001741478529,
          0.003686986667,
          0.003206818571,
          0.005898876567,
          0.001776525922,
          0.001291115362,
          0.533730033586,
          0.491383564317,
          0.468700822615,
          -0.065414826243,
          -0.102805821388,
          0.089211873573,
          0.16955135934,
          -0.065414826243,
          -0.102805821388,
          0.088,
          0.048,
          0.044,
          0.006069531758,
          1.1970083e-05,
          0.02315911241,
          0.513565796446,
          2.548
        ],
        "stds": [
          0.023853089197,
          0.032289939341,
          0.040385882102,
          0.050726743945,
          0.07458916196,
          0.108196738045,
          0.143641789171,
          0.156500920832,
          0.014465518449,
          0.012445640474,
          0.010727373753,
          0.009811194014,
          0.014975554691,
          0.025563582783,
          0.038906685662,
          0.059848164071,
          0.090530630767,
          0.103980846292,
          0.025960236121,
          0.029254941061,
          0.326724407382,
          0.336613338267,
          0.340450226427,
          0.062315558513,
          0.089248825877,
          0.073988034846,
          0.150693016683,
          0.062315558513,
          0.089248825877,
          0.283294899354,
          0.213766227454,
          0.205095099893,
          0.465839678425,
          0.519864387988,
          0.672958724026,
